34 64
34 0.32446116 -0.60681933 -0.09693802 -0.003206437 0.10402099 0.08117041 0.054860093 0.08468627 0.12988877 -0.02608521 0.058490157 -0.4852423 0.19230458 0.5602026 0.028151419 -0.20964392 0.05311515 -0.16773191 -0.22081915 0.20221822 0.4838741 -0.1502471 0.17599002 0.6254066 -0.017990971 0.5178977 0.19148214 -0.12498992 -0.11096624 0.12020436 0.028009336 -0.3002544 0.14810462 0.71570927 -0.54930454 0.29404286 -0.21026985 0.79152906 0.13107187 -0.5615928 0.37664303 -0.15178747 -0.18208838 -0.095583394 0.28348532 0.14841945 0.3038403 -0.28932455 0.46336108 -0.577835 0.49968907 0.01720661 -0.21250519 -0.04587882 0.13990198 0.5176916 -0.37454253 0.46884012 0.2663423 0.13813572 0.10024715 -0.58784395 0.06322613 0.1734997
1 0.1369197 0.44402653 0.42557326 0.34838152 0.036584444 -0.20799002 -0.32286552 0.39809662 -0.6618232 0.016846905 0.05156056 0.4240466 0.24492957 0.023102267 0.25508243 0.5636896 -0.04617089 0.07536706 -0.23920459 -0.3034526 0.08572947 -0.03833187 0.07133386 -1.1185281 0.29353777 -0.14455669 -0.15503861 -0.20799074 0.2668014 -0.051662877 0.1413351 0.16730995 -0.21486636 0.32311097 0.24272986 0.13083568 0.27601746 -0.7451385 -0.5296423 -0.27638817 -0.60880697 0.42842266 0.18814093 0.05477331 -0.29837835 0.35793757 -0.34541923 -0.37418693 -0.26259506 -0.07443699 -0.26580393 0.29394516 0.42715555 -0.639967 -0.55294144 -0.32033432 -0.5639571 -0.04151225 -0.60214347 -0.09709494 -0.24806982 -0.113035955 -0.19641733 -0.034704946
33 0.26681378 -0.16850062 -0.40160716 -0.22629182 0.13535106 0.24201456 0.3919747 0.30067593 0.14491715 0.01702782 0.10903325 -0.7335476 0.19263044 0.6436088 0.56833214 -0.70464706 0.67193085 -0.55399233 0.10297265 -0.12451492 0.057249967 0.18211737 -0.062562786 0.438605 -0.06432385 0.6725668 -0.0048402413 -0.14876768 -0.041166443 0.43759635 -0.27254975 0.008627813 -0.43649453 0.41358638 -0.4195057 -0.030823313 -0.28698865 0.38553452 0.2390075 -0.3835147 0.6643747 -0.28407803 -0.072142296 -0.088887386 0.3485419 -0.026098454 0.5331828 0.23588619 0.5247482 -0.3310917 0.6737906 -0.15120475 -0.09911848 -0.31288326 0.7933112 0.025126757 -0.20383479 0.26684746 0.2867691 0.636544 0.05291499 -0.41802913 -0.013977309 -0.18531287
3 0.37912568 -0.60992754 -0.14585498 0.14432114 0.16090135 0.28506434 0.2927287 -0.021811564 -0.20769732 0.028368313 -0.18366398 -0.10277659 0.18053819 -0.52121246 -0.11671167 -0.16885911 -0.25805244 0.40619317 -0.28022036 -0.027046217 0.3327353 -0.07259358 0.13611238 0.5397574 -0.14583066 -0.06462416 -0.09639126 0.2035381 -0.21234457 0.3297613 -0.08609692 0.10482074 0.17346063 0.33283058 -0.5663949 -0.33137313 0.42759845 0.2622788 -0.07346687 -0.046048272 0.13230579 -0.074225836 -0.41503328 0.23169422 -0.018066864 0.5404605 0.43803516 -0.48338965 -0.10265082 -0.7136195 -0.05999704 0.17192116 -0.20395212 -0.13326992 -0.14642428 0.8297662 -0.10189771 0.23264863 -0.039879717 -0.19938135 -0.21957065 0.09206347 -0.38444233 -0.124238804
6 -0.6546748 0.80171806 0.020297507 0.9641166 -0.86844647 -0.8306293 0.041028745 -0.8213313 -0.63701826 0.2065577 0.4404995 0.5753871 0.055995043 0.14966415 0.73052526 0.40572125 -0.5716316 0.6569187 0.91275007 -0.17953655 -0.9830238 0.47466102 -0.4474457 -0.85876757 0.43120223 -0.55054426 0.27565935 -0.3546312 -0.26073158 -0.31659615 0.1847057 0.033246364 0.06782619 -0.5736423 0.27743217 1.2667774 -0.29842457 -1.275056 0.17647089 0.71719223 -0.7229519 0.4055035 0.70547795 0.3558982 0.45039502 0.044302408 -1.1621926 1.0019565 0.44167337 1.4878806 -0.62050647 -0.012384899 0.21244134 -0.51595336 0.068075575 -1.6948011 0.032911416 -0.656269 0.17388776 -0.62048966 0.11932072 0.7052039 -0.20983705 0.79356563
7 -0.41566277 0.38171497 0.27284545 -0.19534376 -0.5872369 -0.8026971 -0.186353 -1.1251129 0.023755204 -0.43996787 0.25934377 0.8193516 -0.14541455 -0.27148214 0.29634205 0.45122564 -0.0726492 1.0005835 0.8436113 -0.028965894 -1.1159952 0.37930924 -0.24313827 -1.1473687 -0.034602087 -0.026997996 0.092231676 -0.63467634 -0.6117484 -0.786 0.8576669 0.092318036 0.4102235 -0.897315 -0.27780482 1.1773932 0.046845283 -1.1942638 -0.028327847 0.111358605 -0.33132592 -0.23152567 1.198766 0.63417 0.08225811 -0.4048608 -0.80571353 0.45730296 0.35577288 1.3928732 -0.8124743 0.43941003 -0.2846281 -0.41654092 -0.3050002 -1.7593738 0.14649153 -0.49751338 -0.14364672 -0.8319057 0.3666679 0.7853437 0.02019487 0.5671105
2 0.34672758 0.4746324 0.5963548 0.06049444 -0.59629065 0.101678096 -0.36199093 -0.10559771 -0.2464695 0.1928869 -0.7151046 0.56304854 0.2967208 0.36137685 0.010159989 0.28942257 0.29822746 -0.39737764 0.40565428 0.5043047 0.49529922 -0.42040578 0.33219707 0.2591483 0.41850263 -0.1474643 -0.5629486 -0.016564885 0.64000136 0.48475555 -0.41831896 -0.18599185 -0.5132588 0.7529984 0.26981658 0.23398687 0.1828223 -0.17100449 -0.5721394 -0.71609396 -0.3327966 -0.27296892 -0.6001177 0.010795157 0.17968988 0.31687236 0.17903806 -0.27489957 0.34931654 -0.21229564 0.22522119 0.2242067 0.005833554 -0.44796002 -0.8361538 0.076557845 -0.35553288 0.729636 -0.09888612 -0.18118817 -0.7138218 -0.22038724 -0.6950035 -0.17609039
5 -0.5267503 0.4493503 -0.0011591717 0.5487902 -0.53276473 -0.57575184 -0.1577139 -0.768626 -0.34771767 -0.12001183 0.16620778 0.76934916 0.12198889 0.16492349 0.90018183 0.5363713 -0.35279602 1.2995818 0.9424853 -0.6026744 -1.0566368 0.6343544 -0.38842595 -1.4577062 0.08995003 -0.4307176 0.06228102 -0.6713874 -0.0975404 -0.37274238 0.5554835 0.33579102 0.36809447 -0.9179463 0.032938763 1.2606392 -0.17715302 -1.1828399 0.018919462 0.2645877 -0.45007393 0.018800374 1.0107008 -0.085443825 0.057448663 -0.4158308 -0.9989987 0.8485847 0.08290538 1.6108466 -0.7006153 0.52518386 -0.11652046 -0.23627965 -0.16309561 -1.9119129 -0.25404316 -1.0389781 -0.072377436 -0.2871414 -0.27548555 0.7709247 0.13110715 0.82688814
11 -0.13985986 0.49927965 0.35055292 0.54213285 -0.842889 -1.0294213 0.1273731 -0.8707314 -0.46996385 -0.21328858 0.88556296 0.36845568 -0.30914336 0.10802482 0.12409166 0.4009958 -0.5265884 1.1793822 0.73184067 -0.32973012 -0.55115265 1.0594975 0.17676242 -1.4017899 0.02281475 -0.1813273 0.15039581 -0.86505026 -0.015155242 -0.34991837 0.45136586 0.32728815 0.37538993 -0.85010225 0.166581 1.1405741 -0.6385279 -1.3360595 0.26623014 0.26690647 -0.69577765 0.44228265 1.0387326 -0.03475492 -0.4579854 -0.10493335 -1.4119812 0.39383057 -0.10771911 1.3209432 -0.70487803 0.70958 0.008591557 -0.21590936 -0.14569786 -1.7059947 -0.29533163 -1.0076028 0.21190917 -0.68750644 -0.23803039 0.9661966 0.657399 0.91581607
24 -0.081602596 -1.0381373 -0.071741 0.16761255 0.014688658 -0.24975686 0.23062277 0.03060067 -0.14229506 -0.27968243 -0.31260335 -0.09633869 0.47524375 -0.64153206 -0.38235432 -0.42596936 -0.62966555 0.46401772 -0.12703551 -0.16226414 0.34270096 -0.3480642 -0.14855392 0.843079 -0.8041789 0.076289624 0.28949818 0.27688378 0.06159552 0.12202666 -0.14092062 0.18940793 0.3690552 0.3463406 -0.6364886 0.031998746 0.4270436 1.0355014 0.5205596 -0.6136459 0.7983937 -0.3644465 -0.3292987 0.24591623 0.08601613 0.74988526 0.49470896 0.5229233 -0.31285745 -0.5535562 0.41724765 0.36633152 -0.16880843 -0.12194882 0.9064114 1.0386814 0.01040618 -0.3018139 0.15896173 -0.06135968 0.18332419 -0.37336826 0.20478459 0.28581333
28 0.10003029 -0.57310325 0.080234446 0.3493648 0.5721834 -0.68844914 0.4108434 0.61642945 0.13159263 -0.12722936 0.074434936 0.14142753 0.5133818 0.020171478 0.06691564 -0.5458993 -0.4853291 -0.029027153 -0.38842902 0.22659257 0.42890924 -0.24885705 -0.32998735 0.793708 -0.5697169 0.31670615 -0.1982549 0.3669798 -0.23502159 0.10371923 -0.297307 -0.6976329 0.22669217 0.5968409 0.2574611 0.13603081 -0.52275985 0.20485507 0.10211118 -0.40686718 0.65017176 0.1631793 0.09681211 -0.29161754 0.055661205 0.3456417 0.32554615 -0.3609311 -0.21080345 -0.76146257 0.6391176 0.37095723 -0.46610507 0.8020935 0.80617344 0.6648915 0.39105457 -0.06186901 0.04587454 0.3182079 -0.3334407 -0.42078143 0.17122218 0.6309315
32 0.040918767 -0.6416449 -0.033298336 0.27619502 -0.008565547 -0.2514463 0.34594107 0.025513018 0.023079652 -0.07909005 -0.12597793 -0.02657866 0.32825127 -0.28181088 -0.07332606 -0.39162004 -0.44185096 0.30486768 -0.09065951 0.076092616 0.2779254 -0.16037704 -0.08291214 0.8297469 -0.5070463 0.07005777 -0.0596788 0.29392886 -0.17904378 0.1539392 -0.12877318 -0.13537267 0.23194505 0.289882 -0.22772604 0.095982775 0.014851016 0.36246124 0.30024177 -0.2712005 0.4314834 -0.14423595 -0.14174679 0.053162605 0.085808575 0.48554453 0.39569452 -0.0094239395 -0.11798337 -0.5392431 0.33059955 0.26699054 -0.30827454 0.2378426 0.45124656 0.657295 0.15426278 -0.06682922 0.2505659 -0.06763274 -0.12965715 -0.098509066 -0.046457086 0.37800908
17 -0.13977224 0.3775258 0.036292326 0.29809147 -0.39685494 -0.5533593 0.14193663 -0.8258984 -0.18572819 -0.0012702917 0.4839996 0.5367621 -0.059432514 0.08848243 0.39848185 0.31822652 -0.25665376 0.9698936 1.0130188 -0.2799988 -0.51977533 0.6036913 0.14014456 -0.98268026 0.1306907 -0.161437 0.039192613 -0.5356896 -0.024933625 -0.13757624 0.6144499 0.056716386 0.30587137 -0.7922446 -0.014102955 0.9067167 -0.5500851 -1.1151646 -0.038830772 0.2614819 -0.42136994 0.15932836 0.64808947 -0.19512407 -0.2456615 -0.47876137 -0.9057304 0.4458285 0.15964748 1.0799183 -0.49773216 0.4390799 -0.24092385 -0.017914718 -0.45082322 -1.5370201 -0.02248025 -0.65898657 0.21725257 -0.47778684 -0.43077704 0.6254825 0.29474676 0.59335077
14 0.42613852 0.15624619 -0.10588843 -0.15880708 0.24587208 0.16013189 0.23419341 0.094500795 -0.22241499 0.021099413 -0.052512556 0.055815194 0.25762442 -0.3457495 0.022512674 -0.2230057 0.0809936 -0.081730425 0.062044963 0.0753787 0.16481778 -0.0878172 -0.06288797 -0.09875924 0.10333007 0.15105677 -0.102599345 0.19854878 0.15421267 0.5476196 -0.32555133 -0.15850721 -0.20977433 0.3440439 -0.28539735 -0.4180494 0.10658138 -0.1617173 -0.44229934 -0.05361023 0.24424069 -0.042116944 -0.3103718 0.056650538 0.05874564 0.13180283 0.26959595 -0.14203863 0.1302818 -0.35695863 0.010286457 0.1390667 -0.08810573 -0.29780465 0.1711802 0.3389095 0.15675817 0.12097 -0.37901238 0.07717519 -0.26442656 -0.031332817 -0.26414368 -0.37726822
4 0.64202493 0.42035186 0.15352497 0.30166203 0.43245545 -0.0016198937 0.2494715 0.35928932 -0.14158355 0.12416022 -0.013561431 0.023338923 0.38408244 -0.19695789 -0.16642123 0.37459612 0.30742317 0.20634015 -0.26711276 -0.1749504 0.5115008 -0.52067477 0.8534271 -0.24800862 0.35615504 0.1500048 0.010113952 0.16431937 -0.35275126 -0.33893624 -0.007342277 0.13570838 -0.22860497 -0.15700294 -0.6729597 -0.39256945 -0.039591793 -0.73122483 -0.40299433 -0.2862356 -0.1980248 0.48877823 -0.5968916 0.25154713 -0.6534495 0.15262613 -0.049880862 -0.7909554 0.30467647 -0.41878316 0.3982698 -0.30075672 0.16927056 -0.117706195 -0.504226 -0.30017763 0.25902003 0.32398856 0.47007248 -0.6430792 -0.88569015 0.11177729 -0.595635 -0.6644547
30 -0.12561306 -0.06825741 -0.2499242 -0.29284307 -0.1829573 0.19154502 0.32052946 0.3155936 -0.37214455 0.37454468 -0.3096268 -0.98330116 0.17223802 -0.33588654 0.31601936 -0.9166618 0.31395224 0.017722877 -0.13339874 0.30477518 0.13028754 0.4392663 -0.46889612 0.5366665 -0.8838579 0.45652118 -0.3630381 0.33014888 -0.116863444 0.9834126 -0.28984776 -0.33281597 -0.20650479 0.56693625 -0.21568002 -0.17839372 0.032259356 0.34404564 -0.11603069 0.3200588 0.06788658 -0.6260543 -0.050550595 -0.52304524 0.31093854 0.73049706 1.0061078 0.2860908 -0.10669776 -1.1151133 0.046345465 0.36132264 -0.08455967 -0.12601776 0.63325536 1.1277359 -0.58612645 -0.01847644 -0.28150433 0.22267193 0.30520603 0.2640435 0.21589394 0.70495325
26 0.2448354 -0.7731161 0.24579367 0.05682658 0.31928438 -0.6809705 0.7501269 0.7896545 0.07703028 -0.16776735 -0.008162412 -0.24175216 0.33914515 -0.05451114 0.3789376 -0.77248865 0.3585978 -0.08610936 -0.7463904 -0.06250669 0.029677767 0.110617414 0.004242459 1.1692283 -0.8623466 0.27862823 -0.4631688 0.18576616 -0.82918483 -0.1243828 -0.18296047 -0.15535612 -0.24672914 0.22531116 0.2990164 -0.019075057 -0.37758648 0.031149684 0.32132187 -0.2783176 0.24422745 -0.03479448 0.5107598 0.21641572 -0.25871697 0.83188796 0.67054766 -0.63193935 -0.43235648 -0.7969694 0.5798667 0.34990185 -0.34431845 0.6267004 0.7129852 0.72016543 0.042868577 0.1929097 0.46956214 0.18479377 -0.18470803 0.17856748 -0.2099888 0.77635694
9 0.37646073 0.02581727 -0.17387068 -0.09888875 0.13789494 0.12281626 0.1302682 -0.08581387 0.043918706 -0.23418464 0.0072894567 -0.11060702 0.21152678 -0.094063364 -0.04075798 -0.13102284 0.0056229695 0.16386873 -0.060092367 0.15543982 0.09646159 -0.13992336 0.032716658 -0.008008138 0.15998718 0.24134548 0.22249372 0.060348723 -0.038754266 0.13795954 -0.4019054 -0.18288366 0.12202799 0.32331055 -0.57282263 -0.094135165 0.0152611835 0.10469171 -0.14498071 -0.09996778 0.3075132 -0.13902032 -0.18070994 0.036437046 0.2708421 -0.03351169 0.06802343 -0.13251159 0.34102118 -0.057983264 -0.05405237 -0.0037935807 -0.18934053 -0.10168832 0.36079848 0.2055457 0.16185546 0.026388187 -0.11145555 0.07210653 -0.12846352 -0.022851339 -0.117766 -0.3906254
31 0.5439384 -0.039417922 -0.35159978 -0.25123808 0.85723734 0.25506452 0.35542366 0.28380173 -0.17191234 -0.19556148 0.41747066 -0.20060466 0.4210125 -0.4477371 0.14570199 -0.13514823 0.09530065 0.07342065 -0.1656331 -0.1360486 0.12563623 -0.18093346 0.21854377 -0.45778552 0.18945666 0.3806572 0.4118379 0.1905579 -0.082685 0.25699234 0.10681626 -0.26500887 0.14205435 0.38173693 -0.76440585 -0.44960862 0.008361898 -0.22100586 -0.45894486 0.19058903 0.08113528 0.21383376 -0.10890989 -0.1586211 -0.010862069 -0.16058296 0.078236595 -0.4353279 0.12706442 -0.4777373 -0.29628175 -0.13149782 -0.09994747 -0.31992033 0.051304936 0.38129354 0.17282544 0.004293655 -0.4549904 0.17058693 0.009323662 -0.27068955 0.023147108 -0.68969125
25 0.18535154 -0.9634221 0.09401132 -0.18124004 -0.044488646 -0.3017989 0.67087305 0.30732694 -0.18833071 -0.19567825 -0.2989531 -0.35530782 0.37889746 -0.64438194 -0.0070808446 -0.641858 0.28269497 0.20162748 -0.3997497 -0.40311784 -0.11628849 -0.058339432 0.05236037 1.0212818 -0.910114 0.05653539 0.022878623 0.21696407 -0.476758 -0.0019700169 -0.07179405 0.5060354 -0.26679778 -0.10361319 -0.40476742 -0.25607526 0.3047422 0.6933377 0.48177773 -0.4134072 0.48098907 -0.3905072 0.08823776 0.6962638 -0.3079855 1.0365888 0.80434537 0.31678998 -0.39421216 -0.44699153 0.52942514 0.30117932 -0.05387222 -0.1784042 0.9118518 0.92942226 -0.07623159 -0.06973613 0.5090107 -0.14175196 0.22131008 0.17558184 -0.2175344 0.4515494
29 0.36398527 -0.13465086 0.17866981 -0.029787542 0.34234893 -0.3406852 0.24722838 0.5173098 -0.1758764 -0.03449277 -0.044822298 -0.024525879 0.30695796 -0.042955227 -0.05361746 -0.24610336 0.10112584 -0.19000576 -0.3633048 -0.01848482 0.2901568 -0.15404975 -0.13733001 0.09476123 -0.22479837 0.26622 -0.14960961 0.09542319 -0.023514427 0.19079696 -0.32770362 -0.1724668 -0.24016535 0.34400097 0.061361983 -0.21435933 -0.18225393 0.18209904 -0.23546663 -0.50083846 0.40272895 0.08912688 -0.0358723 0.115816824 -0.24623865 0.4305904 0.28366157 -0.16063148 -0.07442404 -0.4374858 0.55211955 0.31918228 -0.03425745 0.08553756 0.5672089 0.41123617 -0.025987377 0.07273283 -0.10285769 0.09340106 -0.21688454 -0.19865231 -0.018076448 0.26025778
27 0.6021174 -0.90614384 0.05874862 0.16134405 0.16205917 -0.2319439 0.18846738 0.42003435 0.38860023 -0.8015818 -0.17512722 0.013436571 0.45781 0.3767936 0.16739921 -0.30757076 0.05726073 0.1515939 -0.8835176 -0.18311647 0.08959982 -0.3134237 0.22859503 0.92981786 -0.056145485 0.17443909 0.46129015 -0.04163063 -0.27372518 -0.5133481 -0.90866804 0.10438495 0.14082392 0.6524947 -0.53587586 0.05098075 0.037811577 0.77579963 0.6297941 -0.8011455 0.8342979 -0.18655205 0.10059627 0.36250064 0.3808059 0.30456963 0.20737258 -0.55347335 0.023509586 0.014489122 0.3896161 0.047904525 -0.35390976 0.26079267 1.1435943 0.6345848 0.24779603 0.056116845 0.49342722 0.6862687 -0.2779157 -0.38201305 -0.32212302 -0.52847964
20 0.43693992 0.20068687 -0.25012547 -0.21820226 0.3364945 0.24814191 0.32806343 0.06012412 -0.025225608 -0.11514661 0.06855446 -0.15639739 0.33229303 -0.23636511 0.17175634 -0.25150597 0.2719784 0.014372682 0.14549863 0.0661947 0.07831946 -0.11799606 0.2134982 -0.07466787 0.14130142 0.2944994 0.1321489 0.15700395 0.030358158 0.3410517 -0.24873544 -0.19542481 -0.07640643 0.26384395 -0.58273154 -0.29171675 -0.03997756 -0.25698546 -0.27925292 0.08636064 0.13690187 -0.07963031 -0.27324575 -0.15684363 0.13866487 -0.13087183 0.17404406 -0.1798886 0.2781874 -0.25349328 -0.10201999 -0.12709282 -0.17723674 -0.21314326 0.1320015 0.143862 0.22462924 0.070067056 -0.11948455 0.13408774 -0.25748834 -0.026000155 -0.15435584 -0.62170345
13 0.40577626 -0.040223 0.047558583 -0.3566182 0.22352098 0.036379006 0.33315516 -0.47066888 -0.49432054 0.25933453 0.07498962 0.8353037 0.25352806 -0.6246062 -0.146121 -0.049374375 -0.2572681 -0.34096122 0.9396031 0.22398622 0.10214336 -0.1203364 -0.20559283 -0.066918984 0.3589622 -0.2790222 -0.29988736 0.15855798 0.6075625 1.1144942 0.2855031 -0.39414287 -0.27887374 0.30008534 0.2140807 -0.22391388 -0.04913691 -0.10887691 -0.8735159 -0.03090628 0.045864046 0.06305032 -0.32843032 0.1868563 0.032058198 -0.048595015 0.014771376 0.21529886 0.15619779 -0.046233047 -0.1520443 0.41943365 -0.2379576 -0.5502354 -0.5613007 0.316544 0.2662632 0.33207083 -0.7711057 -0.20708102 -0.13243397 -0.27883258 -0.26940367 0.058985244
8 0.5313778 0.005708338 0.11838527 -0.17561693 0.5378021 -0.07994393 0.32594505 0.07907781 -0.2883876 0.102701396 0.18607555 0.48396713 0.35587773 -0.3354876 -0.115505315 0.066764265 0.015851092 -0.34771308 0.34214702 0.046539392 0.26469913 -0.36558443 0.09743832 -0.22351873 0.3366521 0.05926034 -0.14008123 0.12833256 0.22122325 0.44677746 0.27401358 -0.2329329 -0.25542867 0.28788224 -0.033290997 -0.26576668 -0.10511774 -0.24589528 -0.64962226 -0.33141318 0.09147211 0.32119635 -0.24555643 0.23179393 -0.2776884 -0.00953708 0.010067991 -0.23500726 0.20885439 -0.283833 0.20048188 0.12603654 -0.04982153 -0.42422035 -0.37247002 0.074262306 0.21526122 0.33960572 -0.40631312 -0.20706742 -0.18107982 -0.4300732 -0.20744166 -0.219828
10 0.5181444 0.024580346 -0.0644527 -0.070955 0.33511472 -0.05077964 0.2595696 0.3814292 -0.106088534 -0.007957423 0.010502664 -0.19809765 0.28769743 -0.06262888 -0.10644451 -0.25179148 0.08637868 -0.23788871 -0.295832 0.05981498 0.368936 -0.21093395 -0.11422898 0.022089133 0.017394928 0.35663098 0.016555956 0.2156363 0.101367176 0.37347502 -0.5353398 -0.20025088 -0.24040058 0.43919212 -0.21444713 -0.4205469 -0.14893584 0.21725377 -0.27337015 -0.38151568 0.54792553 0.045736488 -0.2710409 0.060943794 -0.065864 0.24570839 0.32869232 -0.116794385 0.1717359 -0.45658815 0.49755412 0.15504374 -0.00078318163 -0.087542266 0.6689484 0.4861075 0.12509708 0.05735841 -0.185241 0.19497883 -0.20855117 -0.24579962 -0.079591155 -0.18783958
15 0.37000158 -0.013830776 -0.12910911 0.04064246 -0.122146316 0.27173525 0.011265047 0.19407211 -0.045115806 -0.2115737 -0.1941965 -0.48491365 0.17818396 0.13759924 0.14449929 -0.34106952 0.052505106 0.18155202 -0.5405759 0.22088663 0.20199874 0.098123096 -0.053692926 0.21902026 -0.013607869 0.25316235 0.09538535 0.09864382 -0.015969696 0.2876604 -0.8311602 -0.23432899 0.09056967 0.7146993 -0.453271 -0.12930071 0.11414713 0.29739395 -0.054241672 -0.012456115 0.1830591 -0.29231286 -0.14584851 -0.23637822 0.45117012 0.3192856 0.3414682 -0.38958502 0.12956057 -0.4135636 -0.15503022 0.11954903 -0.1531233 0.07601368 0.5364318 0.71761495 -0.24293916 0.06395686 -0.112206146 0.37258783 -0.17054611 0.093004145 -0.13810335 -0.21604003
16 0.40388387 0.013461372 -0.18715611 -0.05928081 0.026218558 0.25958353 0.037622023 0.27423432 -0.012499474 -0.26484308 -0.16719903 -0.51481754 0.1859719 0.082825765 0.1108547 -0.4231356 0.0977894 0.10352834 -0.5724747 0.2466764 0.21013555 0.087344386 -0.14736886 0.13296068 -0.03622872 0.38734552 0.09075791 0.105224185 -0.045964472 0.3424565 -0.86455137 -0.27502474 0.07495147 0.7684501 -0.49180415 -0.22923596 0.12134818 0.29487374 -0.11078249 -0.05311166 0.32194948 -0.3067011 -0.13452238 -0.20733567 0.46064848 0.29478255 0.39269426 -0.38575268 0.15688449 -0.47594738 -0.11869983 0.11433693 -0.17045362 0.031246128 0.6876382 0.7436413 -0.16997834 0.060846005 -0.27389863 0.43896022 -0.12367753 0.046218004 -0.09981928 -0.30237034
21 0.38259706 -0.00038599974 -0.1376113 -0.022248743 -0.20150134 0.34059408 -0.06742915 0.14464281 -0.019053178 -0.24532011 -0.23989473 -0.5780886 0.15622039 0.23812822 0.13614559 -0.31431183 0.17711881 0.16404296 -0.52470887 0.2101161 0.18579362 0.093607605 0.0016274545 0.18345767 0.03291992 0.3364802 0.17681153 0.011022181 0.01088325 0.22559921 -0.8274064 -0.15179929 0.07285163 0.734476 -0.6067071 -0.084136374 0.19160081 0.40447414 0.013697566 -0.122462034 0.21684568 -0.38516447 -0.19440588 -0.18961225 0.5034958 0.2963661 0.34875223 -0.33111793 0.24461004 -0.36272117 -0.10913656 0.05588415 -0.1018101 -0.089133784 0.56456107 0.6469546 -0.33600342 0.116227545 -0.067366086 0.3569042 -0.08353421 0.038631808 -0.1314418 -0.3204069
23 0.32781574 -0.03714882 -0.12769671 0.03523441 -0.121775195 0.20379618 0.009541248 0.20686501 -0.0066761645 -0.22651337 -0.18620703 -0.4944148 0.19457558 0.1779045 0.10988524 -0.36975503 0.050457153 0.15713398 -0.5395462 0.24130434 0.22483145 0.068352886 -0.0782267 0.28061366 -0.08989807 0.32784566 0.1032531 0.06842791 -0.041010432 0.23123339 -0.8209017 -0.23426448 0.09332855 0.7221516 -0.47841674 -0.07821985 0.12098344 0.33841184 0.017186394 -0.12036242 0.2709492 -0.31989676 -0.15960662 -0.19858176 0.45953155 0.34631413 0.37552422 -0.36273062 0.15157634 -0.4667416 -0.04939651 0.10492668 -0.16450347 0.05145833 0.6269926 0.6985417 -0.22121416 0.08364081 -0.09512846 0.3702853 -0.13607422 0.01972615 -0.11623688 -0.20790488
19 0.48038992 0.008783815 -0.123440064 -0.020128924 -0.042621944 0.27662733 0.01647243 0.3165404 0.03756075 -0.32650983 -0.1632204 -0.5813698 0.16120207 0.23519263 0.14508918 -0.38352388 0.18831344 0.15470266 -0.7412077 0.20153885 0.23404613 0.12637326 -0.004262454 0.16688067 -0.0083809495 0.3803318 0.11786132 0.04826508 -0.08779861 0.20518512 -0.96550953 -0.21191953 0.066217825 0.77184284 -0.5351246 -0.22097601 0.09520222 0.27305514 -0.04198946 -0.111168146 0.27235708 -0.29984522 -0.08945648 -0.21735713 0.43734682 0.29731014 0.38639352 -0.5743204 0.1386978 -0.47056156 -0.11698692 0.12132144 -0.15856306 0.095784515 0.6911521 0.7356041 -0.22808558 0.08661235 -0.13223599 0.48567343 -0.21346264 0.07822723 -0.15506688 -0.3771395
22 0.4721637 0.03370536 -0.19751604 -0.2952787 0.7544967 0.038622465 0.5186543 -0.15854189 -0.12591994 -0.039430466 0.38674855 0.41864938 0.45469043 -0.6187092 0.022124564 -0.010390603 0.03932313 -0.026037639 0.6414882 -0.042125743 0.0007592238 -0.36659133 0.32893297 -0.26734367 0.32561782 0.14472021 0.22157452 0.1940333 0.033942543 0.31613207 0.49326813 -0.27231702 0.0004363782 -0.014491796 -0.5531196 -0.2511625 -0.13945083 -0.5132761 -0.5397799 0.116165966 0.038287316 0.23619567 -0.25015876 0.11018135 -0.15528737 -0.37541538 -0.122223094 -0.09356084 0.31093338 -0.07038688 -0.1427102 -0.14714643 -0.24491432 -0.39467114 -0.40899453 -0.15056732 0.5618751 0.1350597 -0.2552362 -0.24451017 -0.19078091 -0.229603 -0.16507718 -0.58654845
18 0.4532899 0.2002437 -0.20936355 -0.14714134 0.56462866 0.13424808 0.42738372 -0.10347203 -0.24252212 -0.029149853 0.33044088 0.24288666 0.4213125 -0.50062335 0.060873765 0.05144921 0.010385314 0.07398301 0.49510348 -0.13671498 0.03927986 -0.23735334 0.31870723 -0.43941844 0.34553832 0.051520564 0.25133044 0.119249865 0.18888249 0.3634588 0.22962053 -0.1293868 -0.017941874 0.0055831615 -0.52652013 -0.25447807 -0.1010135 -0.4747701 -0.475337 0.12731117 -0.053424966 0.27684972 -0.28736454 -0.039909527 -0.13490741 -0.279822 -0.2001396 -0.01934708 0.21522321 -0.010843676 -0.18677628 -0.121017374 -0.10371364 -0.42353815 -0.27303383 -0.13746196 0.35732818 -0.029552238 -0.25329077 -0.1366576 -0.25361112 -0.13747986 -0.092824005 -0.59113204
12 0.3118201 0.3217729 -0.019138582 -0.14964029 0.06768794 0.0068091666 0.3075879 -0.5947266 -0.11907914 0.08997253 0.1377642 0.52317184 0.25074655 -0.35993844 -0.07695991 0.1377045 0.0017693603 0.06763117 0.9886406 0.15300989 0.008026736 -0.22236872 0.38210705 -0.16671985 0.42513722 -0.055434115 -0.016117506 -0.0067032184 0.20841818 0.33949512 0.35412315 -0.17503266 -0.06795601 -0.17823261 -0.3755009 0.08594994 -0.15512058 -0.5590902 -0.43021628 0.024819234 -0.15145026 0.07929094 -0.36999467 0.11929254 -0.05331774 -0.3587446 -0.29563847 0.11527169 0.4886794 0.2710466 -0.12340343 -0.073456004 -0.21888341 -0.40000147 -0.64165074 -0.4967124 0.4128589 0.18703675 0.00045748788 -0.53602326 -0.36193743 0.036235303 -0.25390932 -0.32974303
