34 16
34 0.07003967 1.0605279 0.4878343 0.7240167 -0.32243133 -0.44330645 0.35157323 -0.7477259 -0.6332524 1.1652753 0.4489828 -0.29665014 0.59693766 0.5458336 -0.122499 -0.9471446
1 0.46103305 0.53194946 0.8834408 -1.0213959 -0.20943598 0.9691222 -0.75237334 0.62743783 0.982295 0.3339009 -0.2327649 0.041108515 0.3627562 -0.39248177 0.6766288 -0.17407343
33 0.10578665 0.6744896 -0.13272363 0.81733096 0.07627492 -0.8704569 0.9134558 -0.8519485 -0.9143251 1.4604318 0.3414255 -0.43974528 -0.6170697 0.7031984 0.22073838 -1.1467415
3 -0.5118257 0.94009745 -0.33843088 0.12500966 0.00094147323 0.27480692 -0.2508151 -1.0773447 0.19046012 0.16042939 0.85050786 -0.8176553 1.2324896 0.15924229 0.20324862 -0.40888345
6 -1.0794215 -1.5742162 -0.7566214 -1.7962929 -0.5922769 -0.14971668 -0.054152947 0.59704876 2.6375737 0.15256481 -1.891394 1.6782911 -1.2174804 -0.7967665 -1.3005648 0.9514271
7 -0.42083842 -1.3607963 0.32950693 -1.9794159 0.41116253 -0.5166704 0.086501695 -0.06597409 1.8495026 0.8468409 -2.2214603 1.6994205 -1.1675471 -0.7624374 -1.0232579 2.062318
2 2.0243154 -0.30193806 0.27286792 -0.6978554 -0.22515951 1.0676363 -0.07691609 -0.8861252 -0.2571445 0.6057919 0.48814723 0.19961467 0.51606786 -0.15418601 1.7597961 -0.6419993
5 -1.1814364 -1.714381 -1.0014678 -1.4485371 0.17178918 0.48146456 -0.21383063 0.6916617 2.5310576 0.68062496 -1.7318684 1.6871703 -1.5804728 -1.4728024 -1.130394 1.7676672
11 -1.0297768 -0.9259629 0.78636473 -1.0002627 -0.3141591 -0.1598933 -0.38616437 0.49469092 3.0345893 0.18837804 -1.3993617 2.7929778 -1.0882514 -1.7869152 -1.2339131 1.324863
32 -0.86921906 0.6824762 -0.8501029 0.43426916 -0.10016493 0.5649019 -0.17340536 -0.8422352 -0.78767127 -0.23346151 0.5173742 0.29978517 0.110664174 0.96456355 0.06891812 -0.23758118
28 -0.52651125 1.1156871 -1.0610843 1.0109773 0.6455735 0.6782568 0.12962861 -0.606669 -0.76267654 -0.5908447 0.23737524 1.1725713 -0.027138464 1.8170414 0.35555163 -0.8695622
24 -1.1515298 1.1527385 0.1830318 0.4358394 -0.4893685 -0.25884515 -0.79157656 -1.6587913 -2.0327556 -0.35514534 0.74829054 0.55238765 0.02739537 1.0743212 -0.7854131 -0.8583661
17 -0.96226436 -1.7209196 0.20961063 -0.47731993 -0.5975147 0.34693387 -0.6092327 0.024269199 2.1109328 0.11254696 -1.2778429 1.6824621 -0.8217026 -1.5279278 -0.52489394 1.2838405
14 0.28432348 0.5740742 -0.43978527 0.53621393 -0.19652225 0.53319967 -0.2859635 -0.43101147 -0.25225157 0.30649018 0.024561865 -0.8746669 0.045184568 0.15059397 1.0061889 -0.31587955
4 1.5492035 -0.3743334 -0.06464317 -1.0767848 -0.29749393 0.10208758 -1.976764 -0.4082568 0.26672757 -0.35872167 -0.53522265 -0.6574432 0.5460592 1.44547 0.30230027 -0.35870287
26 -0.2794807 1.7463319 -0.86099076 1.0471168 1.4378207 1.0632572 -0.24452181 -0.54678166 -0.35211152 -0.032630768 1.8250921 0.28833625 -0.46712387 1.0731089 -0.26341817 0.021770924
30 0.9110315 1.2637744 -1.4266937 1.4050201 0.57121444 0.16319557 0.3883098 -1.0444605 -0.98812544 0.076197945 0.14950912 0.013871677 0.061621204 0.5553715 -1.4693973 -1.0947523
9 0.42052224 0.27968585 -0.23209615 0.6021831 -0.3380501 0.110350244 -0.3630967 -0.60193723 -0.1933201 0.2428224 -0.18785556 -0.43640107 -0.21499723 0.011681494 0.35573944 -0.11866383
25 -0.48284334 1.2764788 0.27439636 0.5417699 0.3607317 0.55833894 -1.4690475 -1.0145494 -1.0789124 0.17737204 1.9382055 -0.3905011 -0.82739145 0.48683304 -0.9127301 0.28868133
31 0.36440963 1.2165704 -0.39433575 0.9450613 -0.65726244 -0.08087344 -0.47544652 0.17081447 0.26102257 0.07092154 -0.9325769 -1.6010121 -0.01945212 0.19521776 0.05038147 -0.1710291
29 0.45545226 0.76431125 -0.041722737 0.9871323 0.012122201 0.45397428 -0.70233697 -0.4012223 -0.78512305 -0.07399294 0.09135185 -0.17104407 -0.43827724 0.87209344 0.38996768 -0.4763906
20 0.45886105 0.38108867 -0.54054046 0.31628996 -0.40517318 0.2078003 -0.593614 -0.44764012 -0.13850974 0.062307015 -0.42607084 -1.1790218 -0.12586159 0.34858516 0.56849694 -0.044202257
27 -1.3725275 1.5170428 -0.564154 0.07806438 -0.56057054 -0.9089016 -0.4084613 -0.7583642 -1.3756102 0.7330434 1.6285869 -0.052802935 -0.4394017 0.22620313 1.0917519 -0.22841775
8 0.26212862 0.22222877 0.33496585 0.5525571 -0.6010863 0.9881323 -0.34813356 -0.14855549 0.19361761 0.050371785 -0.916683 -0.99308765 0.24047452 0.4241333 1.0302914 -0.24793234
13 -0.5401057 -0.23945305 0.4346663 0.7956267 -0.21970473 1.6090457 0.67443025 -0.3827688 0.63498545 0.6585153 -0.71075463 -1.0050071 0.11822132 -0.5810309 1.2828529 0.172204
10 0.89286685 0.6678834 -0.65427196 0.5452628 -0.108133756 0.40979415 -0.5162411 -0.28623077 -0.8826805 0.22690445 0.2953442 -0.020987742 -0.396969 0.5669756 0.7441243 -0.5951664
19 0.6192495 1.01792 -1.5430373 0.7328234 -0.3980745 -0.46669707 -0.32267305 -0.70749474 -0.6584833 -0.10269902 0.42639837 -0.25264177 -0.27013808 -0.1973317 0.15881322 -0.8952678
21 0.5773459 1.2561512 -1.2710046 0.68371105 -0.36902612 -0.55574983 -0.20016101 -0.61590934 -0.7583393 0.2801968 0.7736398 -0.26343167 -0.31443772 -0.4312981 0.1000459 -0.722717
16 0.54559916 1.3835918 -1.0431701 0.7911297 -0.52163786 -0.32911 -0.23125778 -0.5424276 -0.6408208 0.17158686 0.60362506 -0.44919518 -0.124475814 -0.44725242 0.30274138 -0.8591373
23 0.4977638 0.8974789 -1.1580791 0.50076 -0.43103963 -0.21329065 -0.038166918 -0.73538154 -0.7494681 0.39431673 0.62271255 -0.27473453 0.07549955 -0.39888835 0.5029625 -0.81322336
15 0.6736984 1.2773539 -1.412323 0.7812277 -0.38754117 -0.2580754 -0.34526074 -0.6175534 -0.8375208 0.062248338 0.71687293 -0.27807656 -0.29410633 -0.35459352 0.16079274 -0.72744566
22 -0.15750913 0.19846216 0.2521296 0.3587727 -0.65506655 0.4484527 -0.528914 0.001425573 0.5062581 0.083157666 -1.2161022 -1.1874365 0.003062792 0.74965405 0.4146453 0.30059808
18 -0.018402645 0.23824567 0.4436721 0.49264312 -0.7724869 0.35411638 -0.49363166 -0.040894125 0.42164847 0.17343159 -1.3913187 -1.402266 0.048988946 0.38376963 0.59291804 0.23813196
12 0.16070548 -0.99642193 0.10865082 0.050073292 -0.084542945 0.8906961 -0.19964011 -0.51217043 0.8427686 -0.03815742 -1.1489956 -0.2844145 -0.16290714 0.31596068 0.52763134 0.4684281
