34 16
34 3.884372 0.034366686 -0.07921601 5.065162 -2.9787784 -4.8237276 -1.3680437 -1.1339356 5.7190204 0.07331196 -1.6923289 -1.5483316 -2.542441 -0.9674966 3.2575366 -1.0710107
1 0.27078637 1.1070448 3.625849 -1.7433838 0.8609852 2.6854982 -2.3730593 -3.5648146 -3.9461672 0.40746298 0.29967427 3.1660707 -0.20266983 -2.3886223 -1.5566996 1.1435941
33 1.4536569 1.3412908 -5.8573184 -1.9313625 0.7576114 0.8216327 1.8587675 2.4075644 -1.5886931 -5.021626 1.8985417 1.2936147 -0.77389824 -2.536008 -2.1568828 -0.67861027
2 -3.6845589 2.0293472 -1.8294572 -2.265618 4.0000205 0.8165021 -4.963871 1.2475585 -0.478964 1.3864864 0.34132412 -0.54013807 -0.07360907 -0.6769714 2.815042 0.58292496
3 -1.4671456 -0.05169486 -3.3938792 -2.6790166 0.6951982 5.5122914 -2.4150329 0.9905132 -2.5948186 -2.557235 -1.3023443 -0.6608514 -2.5831823 -1.1112142 -1.233552 1.2650236
32 2.6942632 3.5645247 -0.4496796 -1.7972119 -1.6143986 -0.7660271 -1.7351059 1.1264508 1.6232697 0.08327436 0.770443 3.6462266 1.8181341 0.96921796 -3.4057074 1.4819592
4 -3.46517 1.6127957 -1.0917318 -1.0434151 1.5643722 0.8564885 -1.3385187 1.0361445 1.190839 2.7566435 1.4891163 -1.3602878 -1.3750387 -3.1937332 -0.95499873 0.14844768
7 -1.4526317 -0.5489692 2.747815 0.86290205 -1.760076 0.21191378 -3.835296 -0.4152833 0.58171344 -2.080543 -0.47230563 -0.38694248 1.3211299 -1.5646269 -2.3268762 -0.5337605
6 -1.7657332 3.791738 -0.21672177 -0.56609744 -0.15079658 3.1504238 0.54205 0.73212355 -0.32302603 -1.9477049 1.1871041 2.2649107 2.1084704 -2.9030168 2.116883 1.5960755
24 -1.0213624 0.19850641 0.13359366 -2.725379 -2.7633786 -3.313344 0.7648424 1.7475394 0.587516 -1.2249557 -0.074173786 -1.4796543 0.5804981 -4.6318574 1.5785019 -2.757076
30 -1.5057664 0.7329255 -1.9317814 -1.8061676 0.33311114 -1.7097559 0.7828145 2.0592406 0.84044147 -3.6743648 -0.048815545 2.0960624 -0.6828494 -3.1595314 -0.06035448 -1.8987741
26 -0.7548783 3.1189382 1.3962088 -0.36417028 -0.84230846 -2.4114664 -0.2533893 4.1926174 -0.9151434 -0.55307424 2.0520566 -1.4933925 4.2971087 -5.818382 -0.1831 -0.6857453
28 -0.5482801 -0.43801174 -1.2584603 2.186923 -1.620008 -0.70399725 -3.3337996 2.5802302 0.10503977 -0.29876754 -4.921988 -4.3459473 -1.4081954 -1.9894395 0.016319536 -2.3803685
25 -0.24811596 2.7799945 -2.2090504 0.09739137 -2.4105902 2.1675463 -4.5713577 0.4642078 -0.57232153 0.62516445 -0.1785629 -3.3259757 3.2839715 -2.539734 0.71987075 -1.0126677
11 -0.019393014 1.7354258 1.1283916 -0.24869874 -0.40470672 1.920896 -1.219507 3.1931725 -0.30209342 -1.3414627 3.1423664 3.240576 0.6713599 -2.344532 1.9905428 2.0211365
5 -0.7325029 -2.4629476 3.4998791 0.8115005 -2.1463392 -0.5004809 -3.6759942 3.2139769 -0.43419486 -2.0910187 -0.23943141 0.5068078 0.5687889 -3.0027266 -0.75400275 -0.4841763
17 -3.236365 3.1516697 -3.346556 1.1897665 -0.90376586 0.21515958 -1.159615 0.01639353 3.112507 -1.7762566 -0.60792035 -2.1042805 1.4239998 -2.0776596 -0.6725792 -0.68943715
14 -2.969809 -0.47322732 2.36231 0.07828901 0.04930342 -2.2189333 -3.2703705 0.2549652 0.9822795 0.2174735 -1.4350777 -0.673608 -4.1042204 -0.95742005 -1.6964248 0.15121062
29 1.0113121 -0.024510967 -2.0640597 2.2469862 -0.20394236 0.44175068 -2.7153971 2.0042832 4.394658 -0.3592879 -2.4382136 0.80737615 -0.56589466 -1.0220082 -2.7290404 0.39950326
8 -2.0457785 2.591644 0.34897473 1.505125 0.1569961 2.322768 -3.6259546 1.3541411 -0.10279427 1.3195946 1.3397235 -0.6186098 -1.089887 0.5235643 -2.0961041 -1.038462
31 -0.72570306 2.8209648 -1.4016439 0.013662936 -1.2311153 -2.3254304 -2.9006152 4.43846 1.1882998 -0.8411667 1.5625885 0.0016375908 -0.8818246 1.8836066 2.1051514 -1.6778948
27 -0.77169895 2.3067002 1.2636219 3.0552275 0.15937456 -1.1898992 -1.4879365 1.2183483 3.6838236 0.38506183 -0.6613739 2.662936 -1.0538131 -1.668138 0.1761625 -1.0228896
9 1.8249696 0.8096016 0.2210927 1.1023022 -3.6156857 0.867072 -1.2965304 1.6848643 -2.3699186 -0.38707542 -2.2557802 2.308785 -3.550526 -0.60260636 -1.4684347 -0.5654142
20 -0.092783034 3.1922717 3.575922 0.98251957 -2.5460875 -2.0786707 -2.7544842 0.31984475 2.3582432 1.7448925 -1.1224934 -1.231665 -0.98893577 0.5349488 1.8658372 0.98868823
13 -0.7568412 2.313478 1.479155 -2.3967483 -1.1079609 1.0902683 0.39317596 -0.06100766 1.2622864 2.0067234 -0.16076557 0.92281556 -0.48434782 -5.2265368 -2.0213032 0.46149048
10 0.64734787 2.1524732 0.2050984 4.536447 0.0003118537 -0.010467894 -1.3069012 3.1324165 1.690039 -2.4561262 -2.9047809 -1.5598849 -1.7111099 -0.5782515 2.2014606 0.860617
18 -2.8101215 4.184831 -0.67515534 -1.0470823 0.14098433 -1.6841683 -3.1884336 -0.8658958 -1.9380641 0.30457273 -1.1914196 3.0702581 0.69349116 -0.03257714 0.38488603 1.930003
15 -0.17002708 1.2759608 -1.1156045 0.07615634 -3.051978 -3.1170564 -1.7839956 1.4861484 1.5427386 -2.1034424 -0.42734122 -0.48618966 -0.7383384 -0.020056626 -0.0085256575 2.2141023
16 -1.010767 5.124676 -1.679437 0.9378063 -2.0528197 -2.28399 0.044019386 0.22178866 -0.1764019 -1.5883642 0.042641845 -0.797179 -1.234803 -0.21037628 -1.0117533 -1.4250768
22 -0.22959022 2.477949 2.3027039 -2.9177177 1.1823906 1.6349431 -2.34162 1.0743341 0.5421761 -0.8378674 -1.801049 0.8643072 0.17211835 -1.1354332 0.8286985 -1.9917188
23 0.7436842 1.2025975 0.7339128 -0.6668011 -1.7036923 -0.94896495 -1.9738327 0.9726715 2.7079682 -3.0976417 0.56595856 -1.0965297 -1.0366284 0.4936188 -2.0487611 -2.786604
21 0.9643312 3.3016233 1.4180914 0.90863353 -0.8258138 -2.0619376 0.8896885 3.5497725 1.6769277 -1.926734 3.2437477 0.13119693 -3.0200403 -1.2948216 -1.9643326 1.3906046
12 -0.7105739 3.5332608 3.729827 -1.3628776 -0.87408274 -1.5465162 -1.8639566 -0.57445294 -3.1453083 -1.2469339 1.7963276 1.0936397 -0.1658866 -2.4819698 -2.6373906 -3.0546412
19 0.7158431 3.4682097 -0.9866627 -0.4163153 -2.2784665 0.26023787 0.5767312 2.3249707 3.6375751 -0.32407036 -0.8399017 -1.1967194 -0.49957153 -1.3293338 1.5253217 -0.2229343
