34 16
34 -0.50163156 0.46932608 -0.18235716 0.68043756 -1.5977496 1.2971576 -0.879621 1.3414665 1.7488914 -0.017402701 0.22835204 0.09603258 0.6509396 0.53378624 -0.50216043 0.1876534
1 1.3859231 -0.85929143 1.1067736 0.9861993 1.5643611 -0.3920072 -0.2435518 -0.40049532 -0.74966246 0.66331935 -0.19548869 -0.25451422 1.3066881 1.4328061 -0.017440386 0.23017344
33 -0.3534144 1.2682767 -0.5066188 -0.62396055 -2.0985134 -0.90741515 -0.5087157 0.3339669 0.6217422 -1.5046792 0.44518715 0.35597032 1.0397586 -0.024709817 1.1568973 1.4592801
3 -2.1200528 0.055134237 -0.9320938 0.41142258 -0.30497536 0.7398951 0.54030246 -1.0815392 0.4938666 -0.30616653 -0.15700811 -0.20504582 1.0342333 0.11892285 -1.2784122 1.0411338
7 1.8925225 -2.7538204 1.9065347 -1.5135003 0.09554921 0.0656814 2.8467598 -0.9619451 -0.6128944 1.7089416 1.2454484 1.714933 -2.976152 1.1272831 0.8304391 -0.9658675
6 0.7001323 -2.9314544 0.82171816 -0.5210244 0.953521 -0.5799984 2.6644673 -0.35340413 -0.98906237 -0.0056812256 0.44302 1.8846363 -2.7397623 3.4447105 2.2017255 -0.6989615
5 0.834728 -1.701864 2.2279978 0.47209522 1.3094052 -2.2009227 3.2783768 0.40773225 -0.5968667 2.0305555 1.1427002 2.508324 -3.461077 2.0744634 2.131312 -1.0695709
11 1.0107174 -2.6497767 2.2113879 -0.48293877 1.8051635 -1.0717613 3.7177014 -0.685563 -0.52675116 -0.31258088 2.0627477 0.86195993 -3.4086993 1.9178011 1.1390027 -0.4942821
2 -0.88878834 1.3183848 1.9036695 -0.23197748 -0.86668617 -0.26619142 -1.226279 -0.4227472 -1.3852592 0.49068767 -2.1535962 -0.7960968 0.19836655 1.2465384 -1.0043672 0.15799703
24 -0.83774996 0.4216975 0.22302626 -0.2081252 -0.21052629 1.0176198 0.68737257 1.3706006 1.940899 -1.7865632 -0.1996683 -3.6582563 1.1229178 -0.82021934 0.3982745 -2.1101713
28 -0.30864957 -0.7235808 -0.8935465 -1.2328926 -0.6866568 -1.4504603 0.36500692 2.5651786 -0.04730177 0.48096913 -0.30183306 -1.4008685 2.0150108 -1.9627992 -0.41657043 0.30617768
32 -1.0849923 0.52236927 -0.23860244 0.91274476 0.12876388 -0.2040407 0.81746817 1.1570233 0.64727664 -0.0067139897 -0.65684474 -0.51200384 0.09752473 -1.6883428 -1.2424707 0.40942082
17 0.06565452 -1.0316769 2.1136496 0.31088945 0.8286403 -0.6770629 2.822133 0.6041805 -0.64822954 0.8168887 1.6036749 0.8117549 -3.5941198 1.76395 1.1715031 0.18460664
14 -0.08931072 0.6242568 0.18984768 -0.26086164 0.43096384 0.17026988 -0.22184856 -0.37587002 -0.48417902 -1.0760531 -0.69458413 -0.2528342 0.6582007 -1.028761 -0.17976783 0.61772984
4 -1.2253264 2.0220087 0.33234245 -0.061766468 0.41198298 0.8241236 -0.096932866 -0.72740453 -1.6278175 1.782029 2.9116604 -0.06437678 1.9356979 0.1316301 -0.070023306 -0.7432533
26 -0.98414326 -1.1721966 -2.4447637 0.38672015 -1.4246855 -0.9620458 1.3351141 -0.22076635 -0.24994394 1.6391145 -1.5294213 -0.1025353 2.0418758 -1.4863839 0.04329742 0.34465083
30 -1.6137967 -1.1724564 0.7835972 0.68522364 -0.77708924 -1.4326524 -1.2108592 -0.966004 1.7140193 0.18681948 0.24914163 -0.8495507 0.86784506 -2.823238 1.1361134 -0.05144048
9 -0.5073435 0.4731058 0.037600756 0.33587414 0.11468031 0.31241736 -0.2847854 0.12730107 -0.40527466 -0.3803734 0.03855383 0.7203923 -0.09171537 -0.9938959 -0.46877626 -0.102909304
25 -1.1559579 0.8356555 -1.278684 2.654081 -0.97440714 1.5455558 1.1883566 -0.1517568 0.37897414 0.11706845 -1.3878652 -1.6313391 0.13333991 -1.5435485 1.6074003 -1.1078128
31 0.30313724 0.7541524 -0.36355737 0.48214802 1.052216 0.7767999 -0.7412336 -0.029529963 0.45207503 -0.9680827 0.730573 1.144002 1.0964789 -1.1977211 0.024545634 -0.17955913
29 0.53733003 -0.36677268 -0.16986236 -0.21450329 -0.7925324 1.2398403 -1.2068031 0.6795431 -1.341897 0.016525129 -0.2772677 -1.1984332 1.1049184 -1.7391012 0.31542358 -0.9547503
27 1.1585412 1.8415252 -2.117378 0.29543185 -1.1080195 0.29675797 2.1025918 1.6527504 -0.64199895 -1.4009548 -1.3421402 0.14113586 1.0981542 0.22017181 -1.6940852 -1.352749
20 -0.058215275 0.745288 -0.33862323 -0.39516416 -0.009890416 0.22432324 -0.46640083 -0.3058363 -0.7334295 -0.40434957 -0.012217499 0.6376324 0.8656989 -1.3949889 0.1796843 0.19589555
8 -0.46031156 0.18322454 0.16568914 -0.08632454 1.0621637 0.9621535 -0.847128 0.6118719 -0.14328392 -0.18756166 -0.90379757 0.36790854 0.3785803 -0.13244973 0.6857846 0.5525191
13 0.6222261 -0.65924776 0.19351122 -0.88238245 1.142632 1.6508925 -0.7328555 0.89177763 0.14161006 -0.9768 -3.4988256 1.0126103 -1.0072589 -0.6508346 -0.033106234 1.7292382
10 0.71713614 0.26085982 -0.10280364 0.38941652 -0.91327405 0.18048123 -0.9740919 0.93003666 -1.2165669 -0.572008 0.054867893 -0.33210444 0.5961139 -1.6968591 0.0010775108 0.3307645
21 0.32017046 0.10117053 -0.11216942 0.66790175 -1.1649601 -0.36948445 -0.588224 -0.47781685 -0.07537918 -1.2300655 -0.118314065 0.28818226 0.6214332 -1.2472565 -1.2040743 -0.54893875
15 -0.11630187 0.098022565 0.029958257 0.69306207 -0.7955632 -0.22094297 -0.69454265 -0.40255126 0.11779696 -1.4573573 -0.50573987 -0.25701863 0.7398102 -0.90601236 -1.2335213 -0.67244583
23 0.27973333 0.3043562 0.07585357 0.4306662 -1.1182215 -0.23316124 -0.78803146 -0.53656995 -0.19851123 -1.452063 -0.187309 0.18320994 0.5958592 -0.80813473 -0.76531786 -0.94180584
16 -0.20883544 0.48074254 -0.07181714 1.2450792 -1.0479902 -0.5745479 -1.1078594 -0.28036833 0.08264157 -0.87386966 -0.55751956 0.5731542 0.8006357 -1.2235434 -1.3207753 -0.4227253
19 -0.04112843 0.0365727 -0.021776155 1.3766363 -0.95975167 -0.18650052 -0.9119653 -0.24007621 0.11640301 -0.7331813 -0.25552958 0.34845212 0.6661535 -1.0341079 -1.2825702 -0.70638883
22 0.05732811 0.42372465 -0.32805607 -1.1497991 1.4110976 1.1241198 -0.09967037 0.16838013 0.051476464 -0.19276103 0.6455878 1.6837293 0.5136091 -0.9414956 0.35823202 0.77068466
18 -0.20744675 0.7013883 -0.016231958 -0.32421798 1.8112216 0.9710442 -0.12758571 0.19212656 -0.17675768 -0.21763581 0.40515938 1.3741899 0.28319183 -0.6850719 0.29873183 0.4880403
12 -1.2433902 0.6653221 0.6627648 -1.7397577 0.19112541 0.9763905 0.28385577 -0.1133576 -0.37286225 0.4865339 -0.05747794 1.0350245 -1.0056348 -0.019143168 0.68866736 -0.27774483
