34 16
34 0.60376847 0.72231 -1.8036753 -0.42558706 -0.45290783 -0.3333226 -1.0717845 -0.039077222 1.1470128 0.6837004 0.18280415 -0.41323656 -0.036032736 0.14589751 -0.07093574 -0.019968504
1 -0.5161447 0.5906409 1.0251691 -0.4532408 0.4140074 0.028363409 -0.21072367 -0.1475567 -0.766243 -0.5813354 0.68792903 -0.24617703 1.2378647 -0.13387352 -0.84003615 0.25152677
33 0.03231677 0.37272045 -2.0020015 0.042143147 -0.26810852 -0.6317738 -0.08951146 -0.3411233 0.9627463 -0.5539017 0.626643 -0.9561072 -0.38255492 -0.33722427 0.5570601 1.2334216
3 -0.93514335 1.1548501 -0.95666444 0.58085954 0.2697485 -0.16609116 -0.36864313 -0.3648457 0.27932382 1.0036412 -0.40824556 0.0003768416 0.1625032 -0.42723298 -0.75948644 -0.60539114
6 0.66655064 -1.6786759 1.7282332 -0.6242253 -1.3703842 1.6880271 1.0804718 0.009593361 -0.58862865 -1.24269 -0.7132977 1.7460622 2.646268 0.11399446 -0.46793035 0.1457623
7 -0.68965733 -0.9721654 2.3419902 -0.6354217 -1.3250587 1.497333 0.6208292 -0.527584 0.5603854 -1.2418256 -0.293877 0.18291424 2.7439668 1.0713412 -0.44126016 0.08984348
2 -0.24182302 1.3190267 0.28347036 -0.21500969 0.2555066 0.18474029 -1.1237067 0.47361478 -0.434953 0.7578595 -0.37790626 -0.9389887 -0.16243345 0.034842726 -0.650295 2.0610929
11 -0.719401 -0.98555297 3.0424404 -0.4869074 -1.628372 0.7041189 1.8759187 0.4420251 0.3157781 -1.9051745 0.07177529 1.370204 2.2777567 -0.37983316 -0.19473481 0.03130203
5 0.194519 -1.3527662 3.1750872 1.1219931 -1.615607 0.74279845 0.60109794 0.62723184 0.26515824 -1.3938272 -0.7940574 1.7563415 2.576401 0.95917207 0.05457432 0.08589163
24 0.15740584 0.041168176 -1.3963584 -0.1560063 0.0634013 -0.3937477 0.17159516 0.2842058 1.3504275 0.012267063 -1.1985121 -2.0901618 -0.52056986 -1.4042417 -0.2088213 -1.7887033
28 0.60904175 -0.3382498 -1.2921866 -0.46206522 -0.38443148 -1.5585294 0.18836856 1.83287 -0.563812 0.069822595 -0.38044074 -1.4096836 -0.29760244 -1.413926 -0.5235678 -0.92983985
32 0.22393346 -0.011644581 -0.93072015 0.33279586 -0.26084358 -0.42936262 -0.07451322 0.72678995 0.38575816 0.31443134 -0.68993914 -0.78683907 -0.27587125 -0.78787994 -0.3478262 -0.5268355
17 -0.9275469 -0.2619063 2.631132 0.6395381 -1.2881559 0.5053837 0.98304313 0.8581978 0.42978695 -1.5117153 0.12624533 1.4492377 1.6974597 0.32017595 0.6392318 0.36418676
14 -0.49288908 0.6864496 -0.5803519 0.28432506 0.6685685 0.10018234 -0.61373544 0.0682995 -0.47404668 -0.60851014 -0.3518506 -0.35025507 -0.68796885 -1.0050876 -0.08715817 0.6238078
4 -1.0590266 1.0320636 -0.21034856 0.9331913 0.023640452 0.93037397 -0.6923504 0.30036882 -0.5693091 0.68979615 1.8750468 -0.054347247 0.8253999 -0.5751097 0.44156656 -0.14047581
26 0.53612685 0.2849408 -1.779399 1.3683009 -0.34386024 -2.1625159 0.4012621 0.6621365 -0.57600695 0.49362835 -1.3013772 -0.44182572 0.16301556 -0.58196235 0.13041987 -0.82023454
30 -0.04681492 -0.97134036 -1.2265698 1.2062495 -0.37846866 -1.5802354 -0.8205701 -0.44197828 0.83099866 1.4379992 -0.4620903 -0.9263262 -0.58482695 -1.5666378 -0.46153688 0.037801087
9 0.23909034 0.2543792 -0.6488709 0.49381745 -0.21281962 0.00074193743 -0.53973395 0.23910655 -0.0017725499 -0.18570176 -0.4778491 0.14810897 -0.34863007 -0.4198912 -0.028968688 0.3010619
25 -0.06271044 0.741097 -1.4123044 1.3256644 0.17442094 -0.9318656 0.6101009 -0.17972346 0.7735284 0.28928277 -1.7280666 -1.8953869 0.20084555 -0.5070298 0.5728248 -1.0524231
31 -0.22987998 0.39531684 -0.9644621 0.11423226 0.37290773 -0.038841538 -1.0546236 -0.46970493 -0.3009312 -0.4163829 0.5230225 0.89164686 -0.17773288 -0.9790885 0.024569485 -0.43405914
29 0.3964829 0.08481131 -1.2608678 0.32604113 0.010402952 0.075194396 -0.6149109 0.37295574 -0.4594893 -0.6302235 0.121306315 -1.1573348 -0.45127845 -0.6379951 0.06862161 -0.015087602
20 -0.5055787 0.73247087 -0.4107983 0.46103817 0.45709538 0.09159607 -0.9342164 -0.04906505 -0.32604387 -0.3097415 -0.049980916 0.12278423 -0.57253176 -0.8638893 -0.0032020027 0.29694936
27 0.61144894 1.9315668 -2.0883758 -0.29451331 -0.010286045 -0.79329556 0.3704419 0.33221418 0.44921547 -1.8562986 -0.7997855 -0.5015315 -1.0358967 0.11959598 -0.36831623 -0.7850289
13 -0.0657357 0.42654714 0.42643198 -0.7196731 0.9690147 0.8158165 -1.243675 0.4798137 -0.51200944 0.08364965 -1.764715 0.42784864 -0.1432088 -0.8386547 0.12835418 1.0504607
8 -0.22306922 0.5804295 -0.16060625 -0.20115508 0.5739491 0.4041537 -1.0839001 0.64794934 -0.65873 0.05738351 -0.17514461 0.06906142 0.06389576 -0.6699829 0.039912455 0.42795184
10 0.25564334 -0.10828967 -1.0341916 0.71557575 0.30090454 0.06909234 -0.65786976 0.23938717 -0.3960698 -0.81756383 -0.38704067 -0.95003086 -0.7384711 -0.73133653 -0.064405836 0.29082093
15 0.12532884 0.24670723 -1.1410192 0.6162797 -0.42181784 -0.753721 -0.67241603 -0.6053035 0.5513531 -0.59294707 -0.039401297 -0.28535166 -1.1188784 -0.4270279 -0.8355179 0.11015131
16 0.14610393 0.23977466 -1.0846682 0.83235896 -0.42463702 -0.6714396 -0.918593 -0.66656613 0.47825715 -0.56529 -0.074306406 -0.028008092 -1.2336196 -0.547036 -0.71156836 0.11989134
23 0.23200741 0.3032043 -1.1037998 0.4988662 -0.31814924 -0.8155443 -0.86304003 -0.49389982 0.51966494 -0.42129752 -0.31405985 -0.23281422 -1.2303907 -0.58304244 -0.8271814 0.16592559
19 0.24861225 0.5823327 -1.3188698 0.4555891 -0.47814414 -0.8158292 -0.783861 -0.5513018 0.552827 -0.3942563 0.022357311 -0.27578133 -1.0426381 -0.29874268 -0.842007 -0.10809953
21 0.43313518 0.13154784 -1.0539594 0.33513504 -0.3463877 -0.7898042 -0.852787 -0.6428105 0.29201502 -0.54076004 -0.16743158 0.1848057 -1.1031647 -0.61695427 -1.1449956 -0.0031359626
22 -0.5396091 0.60317194 -0.14482586 0.0065185605 0.4154357 0.80045855 -1.223217 0.22981413 -0.41149402 0.16160649 0.21930091 1.2251003 0.40604016 -0.8087878 0.72730654 -0.10768783
18 -0.5959409 0.5424469 0.1140604 0.108222485 0.48474178 0.89021385 -1.0493252 0.11786876 -0.586283 -0.44256338 0.30836284 0.9740013 0.29571113 -0.7125465 0.5914589 -0.07464765
12 -0.3268022 0.33035704 0.53839815 0.2840761 -0.013011518 0.99831784 -0.59233594 0.4809251 -0.26722616 0.20585296 -0.460994 0.6457568 0.5979822 -0.40387306 0.89566386 0.4738526
